<?xml version="1.0"?>
<opencv_storage>
<stage2>
  <maxWeakCount>6</maxWeakCount>
  <stageThreshold>-7.4820876121520996e-01</stageThreshold>
  <weakClassifiers>
    <_>
      <internalNodes>
        0 -1 9444 2.2631451487541199e-02</internalNodes>
      <leafValues>
        -9.0825688838958740e-01 4.4130757451057434e-01</leafValues></_>
    <_>
      <internalNodes>
        0 -1 63261 -6.1176717281341553e-03</internalNodes>
      <leafValues>
        7.8981077671051025e-01 -5.4878491163253784e-01</leafValues></_>
    <_>
      <internalNodes>
        0 -1 9737 -3.1907529773889109e-05</internalNodes>
      <leafValues>
        -9.5698589086532593e-01 4.4153618812561035e-01</leafValues></_>
    <_>
      <internalNodes>
        0 -1 9737 3.6920100683346391e-05</internalNodes>
      <leafValues>
        4.4999268651008606e-01 -1.</leafValues></_>
    <_>
      <internalNodes>
        0 -1 61276 4.6345461159944534e-03</internalNodes>
      <leafValues>
        -6.2651705741882324e-01 5.9634745121002197e-01</leafValues></_>
    <_>
      <internalNodes>
        0 -1 278 1.3310709968209267e-02</internalNodes>
      <leafValues>
        -9.0574324131011963e-01 3.9610031247138977e-01</leafValues></_></weakClassifiers></stage2>
</opencv_storage>
